element,0,1,2,3,4,5,6,7,8,9,10,11,12,13,14,15,16,17,18,19
H,-0.9666045308113098,0.12978185713291168,-0.47799941897392273,0.011795095168054104,0.5454115271568298,-0.28615719079971313,0.02921247109770775,1.3686450719833374,1.9734561443328857,5.29948616027832,-0.13696932792663574,2.0337202548980713,1.87650728225708,2.503204584121704,-2.8921985626220703,3.186957359313965,-0.33050864934921265,1.5831140279769897,0.7828025817871094,6.400384426116943
He,0.0005119764246046543,-0.0016913885483518243,0.00029602283029817045,0.00016638565284665674,-0.0036574681289494038,-0.00112062762491405,-0.00015878543490543962,0.0037464278284460306,-0.004494229331612587,-0.0003036549314856529,0.0003059259324800223,0.0014683717163279653,-0.0008089024340733886,0.0010375343263149261,-0.00010484299127710983,-0.0010949831921607256,-0.0008807594422250986,-0.00024212013522628695,-0.00018430326599627733,0.0007757693529129028
Li,-8.81207275390625,15.823334693908691,24.882526397705078,-6.808282375335693,5.230344772338867,-11.218262672424316,11.258138656616211,2.473674774169922,-4.719959735870361,-6.81395959854126,-4.880602836608887,15.647431373596191,4.090189456939697,9.770830154418945,-4.575366497039795,19.578428268432617,14.653011322021484,3.571413040161133,-2.821479320526123,19.832826614379883
Be,-0.04688680171966553,-0.866161584854126,-0.775567352771759,0.13195176422595978,-0.08220928907394409,-1.6778968572616577,1.6492648124694824,1.676627516746521,-0.6056082248687744,-0.40223804116249084,1.493354082107544,-0.37238961458206177,-1.64298415184021,0.21111372113227844,0.7370810508728027,0.4481712579727173,0.22351908683776855,1.9089961051940918,-0.7868407964706421,6.973182201385498
B,-34.32201385498047,-0.4963982105255127,-12.558058738708496,8.77194881439209,7.587599277496338,-11.153410911560059,-1.706414818763733,-1.3259727954864502,6.4127912521362305,1.420759677886963,2.832383155822754,0.7030874490737915,0.4601151645183563,3.033621072769165,-0.7188790440559387,-1.8099658489227295,-5.344667911529541,2.5233051776885986,-0.3308129906654358,9.38676643371582
C,-14.559516906738281,-0.999398946762085,-5.540573596954346,0.881345272064209,4.648038387298584,-2.5498907566070557,-3.1431167125701904,3.436128616333008,-1.066927194595337,1.1739740371704102,-1.7960090637207031,-2.5360636711120605,-0.36176759004592896,2.876070499420166,-3.264129877090454,-1.0711302757263184,-5.768511772155762,4.361485004425049,0.46553221344947815,8.336217880249023
N,1.0455080270767212,2.2837181091308594,2.984945297241211,1.1900819540023804,-0.9792202711105347,2.8562891483306885,0.3907511234283447,12.314751625061035,1.741294026374817,-12.744495391845703,3.0553030967712402,-39.101585388183594,19.401945114135742,26.453502655029297,-22.718046188354492,6.099121570587158,-10.197064399719238,4.088145732879639,1.742955207824707,11.207961082458496
O,0.16457919776439667,-0.15486586093902588,0.03627130389213562,0.06566377729177475,0.057206232100725174,0.05680347979068756,-0.20758700370788574,-1.0169075727462769,-0.728947639465332,-0.8785910606384277,-0.4179868996143341,-0.004153228364884853,0.5436735153198242,3.6473095417022705,7.6358113288879395,-2.7677083015441895,4.1077728271484375,-7.088672637939453,108.04373931884766,25.337217330932617
F,2.3067684173583984,2.0138018131256104,5.283190727233887,-0.6880858540534973,-0.7459209561347961,2.7258543968200684,4.61998176574707,13.121973037719727,8.514609336853027,32.86074447631836,3.7745096683502197,1.2278228998184204,2.027740478515625,2.6346662044525146,-4.819267749786377,3.857337236404419,-1.708364486694336,1.0064899921417236,2.463747262954712,6.118755340576172
Na,-0.9387961626052856,0.611358642578125,2.5259652137756348,-4.187733173370361,0.035689253360033035,-1.253260612487793,-0.2508275806903839,-1.8250644207000732,3.7858901023864746,-3.644007921218872,-3.5644421577453613,13.364004135131836,-0.1461808681488037,14.066915512084961,-6.217662334442139,16.159385681152344,7.6866350173950195,1.6193829774856567,-1.9042696952819824,13.20293140411377
Mg,-3.133857250213623,-16.910287857055664,0.9385339021682739,-9.653861045837402,2.113419532775879,-5.081271648406982,13.363381385803223,5.102447509765625,-7.167874336242676,0.14663244783878326,5.739068031311035,-12.03117561340332,-12.899744033813477,-7.271061897277832,6.705712795257568,15.049367904663086,9.562697410583496,5.947327613830566,-3.118243932723999,24.971729278564453
Al,10.074528694152832,-1.0143930912017822,5.132903575897217,3.3791725635528564,-2.650301218032837,-22.706438064575195,-12.156434059143066,5.063446998596191,14.111167907714844,-5.7932047843933105,24.627574920654297,3.264068603515625,8.847549438476562,-5.666388511657715,13.82344913482666,3.920597791671753,-12.08078670501709,8.737800598144531,-2.71708345413208,21.822629928588867
Si,2.3682734966278076,-4.101667404174805,-2.6669325828552246,0.22998377680778503,6.960375785827637,-8.600902557373047,2.734081268310547,9.88194465637207,6.627734661102295,-3.289813995361328,-27.720327377319336,1.9939780235290527,-2.4197893142700195,-0.5002946853637695,12.573527336120605,3.0255227088928223,-28.376510620117188,11.166245460510254,-1.0821350812911987,17.51971435546875
P,8.081465721130371,-7.182343482971191,-0.40213632583618164,-2.578713893890381,3.5028600692749023,-15.057857513427734,9.64876937866211,-26.51119041442871,-7.913924694061279,9.332645416259766,-3.197287082672119,-5.737948894500732,1.3303629159927368,6.2236433029174805,-6.177785873413086,1.6576815843582153,-15.967585563659668,5.220849990844727,-0.10617678612470627,11.846125602722168
S,1.7377009391784668,-0.11005517095327377,1.2394096851348877,-0.05454622209072113,0.1207980215549469,1.0056933164596558,1.7430799007415771,3.482051372528076,6.330943584442139,-9.415824890136719,3.120675802230835,6.489826202392578,-11.181205749511719,-26.4772891998291,-38.56510543823242,3.1401312351226807,-12.708173751831055,4.3018670082092285,11.172160148620605,12.918784141540527
Cl,0.4758521318435669,0.7924699783325195,-0.5745850205421448,0.5526617765426636,0.30172231793403625,0.3435005843639374,3.0012741088867188,8.39863395690918,5.805552959442139,25.717573165893555,3.201058864593506,1.5989147424697876,1.7430803775787354,3.312095880508423,-6.41294002532959,3.020753860473633,-2.509938955307007,1.7236943244934082,1.5442835092544556,7.539577007293701
K,4.2098283767700195,-7.936000347137451,-9.970891952514648,-3.6867599487304688,-3.4586849212646484,1.9624956846237183,-5.7317914962768555,-2.8253579139709473,8.322052955627441,-3.4732279777526855,-3.2258269786834717,13.683860778808594,0.099823959171772,17.242218017578125,-8.050422668457031,14.446864128112793,5.83642578125,2.2208685874938965,-1.3206480741500854,11.495359420776367
Ca,1.5842477083206177,5.4971723556518555,-1.281558632850647,0.7955758571624756,-1.7973085641860962,-6.560064315795898,-6.9362616539001465,-1.0583593845367432,-0.9914422035217285,2.2583768367767334,-3.477173328399658,-11.786162376403809,-20.475433349609375,-0.3727720379829407,1.6420307159423828,9.729722023010254,9.650370597839355,-4.505726337432861,-3.429981231689453,18.622251510620117
Sc,0.38795530796051025,3.1229465007781982,-1.4226447343826294,-0.9058369398117065,-3.466982841491699,-3.4798178672790527,3.5649173259735107,3.719500780105591,-3.5556063652038574,-2.049579620361328,3.7676780223846436,2.0439929962158203,0.9627008438110352,0.14357055723667145,1.28455650806427,-2.6447582244873047,-0.6517199277877808,-8.347578048706055,-3.332280158996582,17.39216423034668
Ti,0.6233702301979065,-0.786641538143158,2.3910679817199707,3.3567724227905273,-6.383314609527588,-0.47816187143325806,-0.8243618607521057,9.865089416503906,-10.682060241699219,-2.672330617904663,3.2567687034606934,6.824724197387695,-6.381346225738525,8.00799560546875,0.29447466135025024,-11.273330688476562,-4.914557456970215,3.3338592052459717,-3.159882068634033,18.24694061279297
V,-0.1924830973148346,-0.6947434544563293,0.8015609383583069,3.527951955795288,-0.7527503967285156,1.3507745265960693,-0.16350965201854706,0.5008567571640015,-7.892085552215576,-0.4776109457015991,4.741166591644287,5.278012275695801,-8.232168197631836,10.641962051391602,-1.4333794116973877,-12.444846153259277,-4.630134582519531,6.5310959815979,-2.886841297149658,15.464523315429688
Cr,-0.386372834444046,0.37406453490257263,0.9775720834732056,2.487382650375366,1.6577131748199463,3.929739475250244,0.15611465275287628,-0.13253188133239746,-2.10789155960083,-1.2307484149932861,5.3362321853637695,4.171237468719482,-7.579455375671387,7.514187335968018,-0.6980039477348328,-12.347057342529297,-1.9694852828979492,6.248090744018555,-2.904590129852295,15.472880363464355
Mn,4.8822760581970215,1.0676727294921875,0.1796250343322754,2.172973871231079,10.988966941833496,5.048841953277588,8.065681457519531,4.011022090911865,2.61881947517395,-3.514657497406006,5.628385066986084,-0.6144134402275085,-12.877608299255371,6.214107513427734,1.8467234373092651,-15.808355331420898,6.048978328704834,13.062914848327637,-3.963330030441284,21.43011474609375
Fe,3.2240655422210693,4.901350498199463,0.794472336769104,-3.79931902885437,14.831546783447266,5.724575042724609,6.554683685302734,-2.8259525299072266,17.164663314819336,-3.4402453899383545,6.55067777633667,-0.1079329401254654,-8.266356468200684,6.776422023773193,1.3492228984832764,-20.693405151367188,6.580536842346191,14.281903266906738,-3.5711233615875244,21.189603805541992
Co,0.6946000456809998,-1.0880991220474243,0.7076574563980103,-12.506049156188965,0.9168455004692078,-0.4444591999053955,-0.23876257240772247,-3.428499460220337,12.822772979736328,-0.7048495411872864,-3.6114614009857178,-3.5534749031066895,-1.519659161567688,1.0417213439941406,-0.9804182648658752,-20.52733612060547,12.593374252319336,18.452674865722656,-3.487692356109619,22.15526008605957
Ni,-7.785119533538818,-8.171024322509766,5.981515884399414,1.9901821613311768,-29.980064392089844,-4.792417049407959,4.929696083068848,-5.74724006652832,12.440518379211426,0.8825746178627014,-11.234251976013184,-4.0595173835754395,5.892366409301758,-4.382531642913818,-2.7421114444732666,-19.00992202758789,17.101364135742188,19.88735580444336,-3.298171281814575,24.088685989379883
Cu,9.641385078430176,4.596640586853027,-7.111394882202148,31.00265121459961,5.484440326690674,-0.4709256887435913,11.233800888061523,-0.6056753396987915,-0.30498749017715454,-2.5487775802612305,-4.517460346221924,2.8574962615966797,8.248797416687012,-2.2967286109924316,-0.22368526458740234,0.5421053171157837,14.934867858886719,14.967545509338379,-2.979315757751465,20.619096755981445
Zn,-0.0677354484796524,-9.984282493591309,-1.5653483867645264,-2.598686695098877,4.242929935455322,-0.4776538610458374,9.050121307373047,2.9478812217712402,-6.258113384246826,-0.900737464427948,4.378825664520264,-8.295161247253418,-4.792300224304199,-7.905184745788574,6.598995685577393,11.055553436279297,8.274023056030273,11.691607475280762,-2.4979066848754883,21.39234161376953
Ga,-0.011927668936550617,2.8360748291015625,2.259331226348877,2.0336837768554688,-2.359010934829712,-3.128741979598999,-6.352152347564697,-0.208590567111969,7.781460762023926,-3.395200252532959,14.402974128723145,2.357766628265381,7.548610210418701,-5.197517395019531,11.678946495056152,6.003030300140381,-11.130406379699707,7.487769603729248,-2.3920223712921143,20.35677146911621
Ge,2.3447563648223877,2.8226566314697266,1.1106538772583008,-0.8251927495002747,0.13323894143104553,4.405863285064697,2.6493349075317383,5.996646881103516,4.914854526519775,-2.3984436988830566,-22.574384689331055,0.7340648770332336,-2.066767930984497,-1.523482322692871,13.338223457336426,4.9197564125061035,-25.206260681152344,11.647255897521973,-1.2524313926696777,17.999059677124023
As,3.322390079498291,0.18507219851016998,0.5900166630744934,-1.3676751852035522,0.3512914180755615,-4.573034763336182,4.395115375518799,-18.305891036987305,-3.978708267211914,5.727659225463867,0.9830904603004456,-3.650085926055908,2.5076987743377686,3.7798545360565186,-3.588608980178833,1.7189388275146484,-12.54151725769043,3.375189781188965,-0.39601725339889526,11.819061279296875
Se,0.2580678462982178,0.7147034406661987,0.25109735131263733,0.3599565923213959,0.16126063466072083,0.09569612145423889,0.6435741782188416,0.43201744556427,2.2711923122406006,-4.251639366149902,1.2370209693908691,4.37849235534668,-6.75340461730957,-15.984437942504883,-25.23764419555664,2.018095016479492,-9.774811744689941,3.479215383529663,5.9915266036987305,11.038061141967773
Br,0.3916936218738556,0.07402197271585464,-0.9896599054336548,0.2904607355594635,0.1913290023803711,0.39052698016166687,1.6995315551757812,5.391580104827881,3.7032551765441895,18.005949020385742,2.0257508754730225,0.9494802951812744,1.458158254623413,1.947878122329712,-4.60144567489624,2.4101288318634033,-2.0602121353149414,1.542961835861206,1.1483027935028076,6.5296735763549805
Kr,-0.010975047945976257,0.011781035922467709,-0.019178932532668114,0.04124331474304199,-0.004958647303283215,0.02735869027674198,-0.010214054957032204,0.0012149781687185168,0.0070397392846643925,-0.0043862503953278065,-0.0137735391035676,-0.026794852688908577,-0.03404277190566063,0.013523533008992672,0.006981419399380684,0.014552715234458447,0.01943947933614254,0.019026797264814377,0.001763911102898419,0.03222675248980522
Rb,3.5720064640045166,-6.964901447296143,-8.9159517288208,-2.534707546234131,-2.636120319366455,2.388922691345215,-4.659540176391602,-2.0583367347717285,7.033527374267578,-2.754366636276245,-2.6225740909576416,11.381927490234375,0.6977969408035278,14.485158920288086,-6.402763843536377,11.519943237304688,4.708364963531494,1.82759428024292,-1.2350176572799683,9.704804420471191
Sr,2.016749858856201,8.989736557006836,-1.9275206327438354,3.3323709964752197,-2.749460458755493,-4.758718490600586,-12.788780212402344,-2.681957483291626,0.9103507995605469,3.5652194023132324,-3.9364702701568604,-10.027578353881836,-19.202621459960938,1.3180917501449585,0.07469279319047928,7.8499298095703125,7.885666847229004,-2.3420262336730957,-2.5210494995117188,15.75672435760498
Y,0.135054349899292,4.6728835105896,-4.764705657958984,-2.695448398590088,-1.4991698265075684,-2.7151072025299072,6.126965045928955,1.1387640237808228,1.331581473350525,-2.1208972930908203,2.2853310108184814,0.5991584062576294,3.6651437282562256,-1.8827086687088013,1.541355848312378,-2.5944032669067383,0.5916125178337097,-20.65892219543457,-5.5316925048828125,23.732379913330078
Zr,1.0400842428207397,-3.413444757461548,0.6195992827415466,0.3578937351703644,-8.039908409118652,-2.6532886028289795,-0.3981022834777832,10.265077590942383,-12.654374122619629,-0.9284275770187378,0.9840019941329956,5.07832145690918,-3.117124557495117,4.153512001037598,-0.45792198181152344,-5.53959321975708,-4.587539196014404,-1.9840493202209473,-2.2891950607299805,15.8091459274292
Nb,0.3937135338783264,-3.192354202270508,0.15569104254245758,2.3188929557800293,-3.6200170516967773,-2.4409286975860596,-2.4626049995422363,3.0030157566070557,-12.17119026184082,1.1778531074523926,3.778839111328125,5.533121109008789,-3.486712694168091,7.979208469390869,-1.9151967763900757,-7.094483375549316,-5.503598690032959,1.4972167015075684,-1.8540964126586914,10.767502784729004
Mo,-1.958751916885376,-0.9604569673538208,-0.2908713221549988,1.238102674484253,1.0457408428192139,1.154131293296814,-3.8996992111206055,1.1341559886932373,-8.082335472106934,0.15548208355903625,3.5734755992889404,4.807506084442139,-4.395479679107666,6.025336742401123,-3.675753116607666,-8.433897018432617,-3.773963689804077,3.944662570953369,-1.487294316291809,9.927956581115723
Tc,-0.2323826253414154,0.09255329519510269,-1.1096529960632324,-1.888203501701355,3.1283304691314697,-0.0698365569114685,-2.5967721939086914,1.2049590349197388,-2.741506338119507,0.5677842497825623,0.5275332927703857,0.8885321617126465,1.3946590423583984,0.8950178027153015,-0.9439725875854492,-2.36995005607605,0.11042595654726028,3.289600372314453,-0.6261436343193054,5.891332626342773
Ru,1.3380228281021118,1.7704434394836426,-2.883898973464966,-10.163052558898926,9.017007827758789,0.21156859397888184,-8.625722885131836,0.7226324677467346,-5.420936584472656,1.1971122026443481,-1.024666666984558,0.2759464979171753,6.943070888519287,-2.084876537322998,-1.2315170764923096,-7.49269437789917,3.339717388153076,10.058838844299316,-1.4607170820236206,12.568199157714844
Rh,0.8901405930519104,3.433120012283325,-2.755061149597168,-9.691583633422852,4.7962327003479,-0.5950859785079956,-11.339178085327148,-0.3828810751438141,-6.345558166503906,2.4035584926605225,-4.56074333190918,-0.45772385597229004,13.257040023803711,-7.447811603546143,-1.887702465057373,-5.5118584632873535,7.091315746307373,11.644123077392578,-1.5962713956832886,17.369369506835938
Pd,0.4334697723388672,2.8987138271331787,-0.14190633594989777,2.1992716789245605,-2.3293166160583496,-0.1599964201450348,-5.882368564605713,0.056821729987859726,-9.438851356506348,3.509977340698242,-7.348930835723877,-1.8644604682922363,13.30084228515625,-10.965978622436523,-1.9510746002197266,0.33730778098106384,9.994166374206543,11.834212303161621,-1.156318187713623,19.61347770690918
Ag,1.2224749326705933,0.8156121969223022,-2.032414197921753,7.849164962768555,3.0436384677886963,3.0817763805389404,3.304816961288452,-0.6487724184989929,-4.521917819976807,-0.8036264777183533,-0.499058336019516,4.545772075653076,8.5267972946167,-1.7126327753067017,-0.5537950992584229,10.596405029296875,8.409208297729492,7.593818664550781,-1.9127143621444702,16.921253204345703
Cd,-1.890760898590088,-5.533705711364746,-1.860501766204834,-0.8306452035903931,1.3155924081802368,5.5868988037109375,5.559482574462891,0.8851931691169739,-3.3873403072357178,-0.2671310305595398,4.4143781661987305,-6.348053932189941,-4.954413414001465,-6.1617865562438965,5.52927827835083,11.296798706054688,4.844226360321045,6.2959980964660645,-2.093277931213379,17.12358856201172
In,-4.70223331451416,-2.737860918045044,-0.08731935173273087,-2.5516364574432373,-2.972792387008667,12.35725212097168,-2.1914610862731934,-2.3444600105285645,2.493283271789551,-2.8207485675811768,14.663304328918457,0.5611133575439453,3.5476491451263428,-5.122296333312988,10.007193565368652,11.5294771194458,-6.013797760009766,4.457740306854248,-2.764878511428833,21.107088088989258
Sn,-3.361196279525757,7.595658779144287,4.387669563293457,-1.4311904907226562,-9.432412147521973,19.283754348754883,-0.7685312032699585,0.8066848516464233,0.39923784136772156,-1.6020762920379639,-1.846504807472229,0.3714483082294464,-4.2034759521484375,-1.7848597764968872,10.719013214111328,6.130758285522461,-14.54454231262207,9.553326606750488,-2.071729898452759,20.04613494873047
Sb,-3.192131757736206,7.797082901000977,3.6540098190307617,0.43206116557121277,-3.3653860092163086,6.443874359130859,2.8066952228546143,-20.38590431213379,-3.2326109409332275,4.185291767120361,5.568725109100342,-0.761966347694397,0.9626370668411255,3.605187177658081,0.0677100419998169,-0.06391030550003052,-15.900184631347656,5.098933219909668,-1.2447177171707153,16.60907745361328
Te,-1.0224323272705078,0.48589012026786804,-0.5543919205665588,-0.06692863255739212,-0.6354657411575317,-0.041015733033418655,-1.3847508430480957,-0.9681353569030762,-1.4845454692840576,0.19895948469638824,-0.3015028238296509,2.1116318702697754,-3.478201150894165,-7.374637126922607,-13.669713020324707,1.10114586353302,-6.9298882484436035,3.003368616104126,2.670691967010498,10.750412940979004
I,0.4772120714187622,-0.1484578251838684,-1.1038684844970703,0.04819461703300476,0.36422640085220337,-0.3115871250629425,1.1678638458251953,3.6484153270721436,2.3049962520599365,15.015300750732422,2.0700037479400635,0.6222421526908875,1.3242632150650024,1.835227608680725,-4.293379783630371,1.8356590270996094,-2.4130282402038574,1.5708714723587036,0.880017101764679,6.451473236083984
Xe,-0.06132166087627411,0.0010832734405994415,-0.04801737517118454,0.01408842857927084,-0.0073608458042144775,0.05156538635492325,-0.08189208060503006,0.004176895599812269,-0.04434684291481972,0.049571286886930466,-0.0007770394440740347,0.02860368974506855,-0.06947294622659683,0.04650551825761795,-0.07730749994516373,-0.015286942943930626,-0.01796102151274681,0.0419941209256649,-0.01614147424697876,0.1774606555700302
Cs,3.5524048805236816,-6.601116180419922,-8.36811351776123,-1.8967609405517578,-2.3315072059631348,1.766883373260498,-3.5391652584075928,-1.7855725288391113,5.634014129638672,-3.2278451919555664,-2.314509868621826,9.852163314819336,0.7420564889907837,12.785664558410645,-5.826533794403076,9.744550704956055,3.933887243270874,1.7505369186401367,-0.8634679913520813,7.125454425811768
Ba,2.9125401973724365,9.937697410583496,-3.3411972522735596,3.897207736968994,-3.0185954570770264,-5.76986837387085,-13.141366958618164,-2.5318820476531982,1.3618773221969604,3.4351277351379395,-4.154295921325684,-9.87513542175293,-20.505456924438477,2.5206730365753174,-0.31660833954811096,7.609462261199951,8.139205932617188,-0.9169487953186035,-2.226874351501465,14.193979263305664
La,-1.9611151218414307,-10.098618507385254,13.065091133117676,6.967885494232178,6.583423137664795,3.526676654815674,-8.716769218444824,-3.189316987991333,3.7632174491882324,0.9664610028266907,-3.8517911434173584,-1.0288127660751343,1.1796005964279175,-0.7390970587730408,-0.9843807220458984,-1.8267239332199097,1.5450974702835083,-18.416471481323242,-4.907006740570068,19.92125129699707
Ce,-0.9649384617805481,-9.495926856994629,10.422717094421387,5.222336292266846,5.324954509735107,3.7771971225738525,-7.738321781158447,-1.5844734907150269,1.5577497482299805,0.7840401530265808,-4.179434776306152,-0.4087938368320465,1.1520459651947021,-0.5172213315963745,-0.813510000705719,-3.337399482727051,0.5754891633987427,-16.824451446533203,-4.525018215179443,17.891082763671875
Pr,-0.500836193561554,-8.673596382141113,8.869292259216309,4.224950313568115,5.0274577140808105,3.4228599071502686,-5.6824870109558105,-2.0576682090759277,2.4080305099487305,0.9672496914863586,-3.6631155014038086,-0.6746302247047424,2.372560977935791,-1.179258108139038,-0.7185712456703186,-3.2274129390716553,0.7962817549705505,-18.64940643310547,-4.79703950881958,18.94521713256836
Nd,-0.5094101428985596,-7.5899338722229,7.917845249176025,3.7471184730529785,5.193546772003174,3.2304141521453857,-4.985973834991455,-2.2147984504699707,2.757418155670166,0.9623568058013916,-3.396432638168335,-0.5703840851783752,2.616896629333496,-1.3996167182922363,-0.6628720760345459,-2.996137857437134,0.8607386946678162,-19.768327713012695,-5.020206928253174,19.69317626953125
Pm,-0.26625922322273254,0.49845731258392334,0.6867062449455261,-1.2534756660461426,-0.5344555377960205,-0.361928790807724,0.29443806409835815,-0.11051946133375168,-1.2766550779342651,0.501250684261322,-0.3394423723220825,-0.23530453443527222,0.9450429081916809,-0.9897958040237427,-0.09082075208425522,1.886152982711792,0.8483806252479553,-4.176086902618408,-1.46410071849823,8.643744468688965
Sm,-0.23901478946208954,-3.3553824424743652,3.513678789138794,1.7937461137771606,2.954638719558716,2.358048915863037,-1.994301676750183,-1.794908046722412,2.604567527770996,0.43371254205703735,-2.808358907699585,-0.7408603429794312,2.4554293155670166,-1.3594783544540405,-0.10917487740516663,-2.5674479007720947,1.0812568664550781,-20.18621826171875,-5.215888977050781,20.22601890563965
Eu,0.7009004354476929,2.581423044204712,0.18949754536151886,1.9976540803909302,0.2537935972213745,-0.5290819406509399,-6.170522212982178,-2.389063835144043,1.452088475227356,2.0644218921661377,-2.327760696411133,-3.7136118412017822,-6.685146808624268,0.37748244404792786,-0.3773705065250397,3.0642144680023193,3.3877828121185303,-8.414573669433594,-2.991198778152466,14.745326042175293
Gd,0.010662644170224667,-0.2309015989303589,-0.9450732469558716,-0.11594520509243011,0.6179949045181274,0.7077892422676086,0.9879581928253174,-0.5719871520996094,1.8172799348831177,-0.2633667588233948,-0.48538467288017273,-0.28055185079574585,2.5128896236419678,-1.294632911682129,0.1544594168663025,-2.3483543395996094,0.13474862277507782,-14.114703178405762,-3.586646795272827,14.466922760009766
Tb,0.9196949005126953,1.803770899772644,-4.541504859924316,-2.350433588027954,-0.9087298512458801,0.7254714369773865,3.5427935123443604,0.4019128978252411,0.8474479913711548,-0.5733450055122375,-1.2696808576583862,0.7053230404853821,3.567164421081543,-1.2446986436843872,-0.033556267619132996,-4.083505630493164,-0.6862328052520752,-18.147327423095703,-4.45860481262207,18.039026260375977
Dy,1.1675360202789307,3.361572265625,-6.029191017150879,-3.1865451335906982,-1.4164371490478516,-0.4427671730518341,5.559606552124023,0.5013032555580139,1.5617260932922363,-1.3145148754119873,-0.6273716688156128,0.2702935039997101,4.223032474517822,-2.122580051422119,0.5525438785552979,-3.6934328079223633,-0.08365442603826523,-20.745201110839844,-5.004652976989746,19.588478088378906
Ho,1.054335355758667,4.417391300201416,-6.865185737609863,-3.7958579063415527,-2.0672600269317627,-0.9177896976470947,6.1966753005981445,1.009347915649414,1.1979326009750366,-1.4639487266540527,-0.24424970149993896,0.46601811051368713,4.294707775115967,-2.187866687774658,0.6408661007881165,-3.6387617588043213,-0.19450457394123077,-20.634315490722656,-4.998415946960449,19.865436553955078
Er,1.1563899517059326,4.9836812019348145,-7.1715312004089355,-3.8088653087615967,-2.2967641353607178,-1.3208110332489014,6.438750743865967,1.1518875360488892,0.8366905450820923,-1.5112756490707397,-0.02989398129284382,0.42568960785865784,4.096682548522949,-2.202284574508667,0.8032324314117432,-3.7501821517944336,-0.3196992576122284,-20.41181755065918,-4.935329437255859,19.713237762451172
Tm,1.074750542640686,4.9156975746154785,-6.777581691741943,-3.394148588180542,-2.6330718994140625,-1.131140947341919,6.191545009613037,1.6774710416793823,0.06806822121143341,-1.4274156093597412,0.6719337105751038,0.5796936750411987,3.07830548286438,-1.8347519636154175,0.9705919027328491,-2.886627197265625,-0.16729073226451874,-17.262781143188477,-4.495655536651611,18.52803611755371
Yb,0.0012368988245725632,4.5073676109313965,-3.1175642013549805,-1.4110755920410156,-0.8893664479255676,-0.640346109867096,0.46809613704681396,-0.9978743195533752,0.541454553604126,0.7221143841743469,-0.7958357930183411,-2.51849365234375,-3.156327724456787,-0.8829068541526794,0.7651671171188354,1.6595948934555054,1.8804844617843628,-13.826719284057617,-4.207489013671875,19.076675415039062
Lu,0.8145434260368347,4.473905086517334,-5.710660934448242,-3.27898907661438,-2.461559295654297,-1.5295578241348267,5.6913065910339355,1.5822235345840454,0.0042380983941257,-1.4020613431930542,1.1887010335922241,0.775964617729187,2.681786298751831,-1.4878495931625366,0.9926860928535461,-2.432704210281372,-0.3274179995059967,-15.322686195373535,-4.054543495178223,16.866748809814453
Hf,1.1771037578582764,-2.367210865020752,0.7859570384025574,0.3440295457839966,-5.815354824066162,-2.6295905113220215,0.01249055378139019,8.652813911437988,-9.777034759521484,-1.1277700662612915,0.8348597288131714,4.060527324676514,-2.546755790710449,3.145808696746826,-0.06742633879184723,-4.479545593261719,-3.991737127304077,-1.6307843923568726,-1.8406386375427246,12.239437103271484
Ta,0.3140065670013428,-2.4412529468536377,-0.2765233814716339,1.4007961750030518,-3.0207300186157227,-3.1591134071350098,-1.8738042116165161,1.8920495510101318,-10.71932601928711,1.4840766191482544,3.44844388961792,4.3884358406066895,-2.9325344562530518,6.995862007141113,-1.973643183708191,-5.667374134063721,-5.525380611419678,1.3195292949676514,-1.5627315044403076,9.791108131408691
W,-1.4041837453842163,-0.4669426381587982,-0.1037546843290329,1.7435152530670166,0.09594447910785675,1.055214524269104,-2.3934309482574463,0.6437332630157471,-5.767323017120361,0.05196864530444145,2.7284624576568604,3.349609613418579,-4.251107215881348,4.78392219543457,-3.123880624771118,-6.855363368988037,-3.2513997554779053,3.642265558242798,-1.180901050567627,7.865266799926758
Re,-0.6428021788597107,-0.09432359039783478,-1.545654058456421,-2.1728014945983887,3.5189554691314697,-0.3918749690055847,-3.1426193714141846,0.9653653502464294,-3.726243019104004,1.1037944555282593,1.0298659801483154,1.8426778316497803,-0.5040629506111145,2.678959369659424,-2.129117012023926,-4.170205593109131,-1.8370531797409058,3.4047751426696777,-0.7392838001251221,7.162286281585693
Os,0.4719535708427429,0.7553437352180481,-2.3913190364837646,-5.661781311035156,6.189964294433594,0.0307276900857687,-5.898951053619385,0.5040066242218018,-3.319361686706543,1.047528862953186,0.3988759219646454,1.0793473720550537,3.153568744659424,-0.5483878254890442,-0.8622780442237854,-3.9280362129211426,0.585751473903656,5.388363838195801,-0.9378166198730469,8.280464172363281
Ir,0.3829882740974426,1.876526951789856,-3.1344287395477295,-9.255034446716309,5.137837886810303,-0.3315310478210449,-10.093924522399902,0.2583718001842499,-6.190386772155762,2.314227342605591,-3.061777353286743,0.07340407371520996,9.780989646911621,-4.887871742248535,-0.8850352168083191,-4.5175957679748535,3.4747121334075928,9.342845916748047,-1.401308298110962,13.325080871582031
Pt,0.8072435855865479,1.8663965463638306,-1.3332769870758057,-1.4803975820541382,-0.12125995010137558,0.2627790570259094,-7.486939430236816,0.4564213156700134,-7.703426361083984,3.5991873741149902,-6.04008150100708,-0.7882456183433533,11.068623542785645,-7.973775386810303,-1.7643948793411255,-1.393254041671753,4.812597751617432,10.2745361328125,-1.1844687461853027,16.41227149963379
Au,0.07424741238355637,2.5838654041290283,-3.0376944541931152,7.084136009216309,2.181877613067627,2.755788803100586,-1.698980450630188,-1.0127507448196411,-6.121843338012695,2.282745361328125,-0.7543076276779175,0.808333158493042,10.825230598449707,-7.065398216247559,-0.4313300549983978,5.321633338928223,5.109880447387695,8.038145065307617,-1.0467580556869507,16.6241512298584
Hg,-0.8411320447921753,-2.8148038387298584,-3.0961384773254395,0.3371798098087311,1.456972360610962,5.466918468475342,0.5906469821929932,-0.6569732427597046,-3.7433722019195557,1.181463599205017,2.5703415870666504,-1.7572147846221924,1.6352962255477905,-4.291819095611572,1.1855666637420654,9.756997108459473,3.059875011444092,5.019374847412109,-0.7420172095298767,13.48414134979248
Tl,0.03266162797808647,-3.843160629272461,-4.98886251449585,-0.4894682765007019,-0.7557145357131958,9.169157028198242,-1.9739741086959839,-2.221564292907715,1.0710443258285522,-1.9439045190811157,5.052576541900635,4.317617416381836,4.440717697143555,2.1004397869110107,0.7383116483688354,13.259299278259277,1.1346385478973389,3.917703628540039,-1.3889955282211304,14.269301414489746
Pb,-1.6064932346343994,3.8822147846221924,-0.016802886500954628,-0.8600708842277527,-3.044363260269165,9.030778884887695,-2.7315542697906494,-0.7395074367523193,-0.06767486035823822,0.7944206595420837,-0.18872417509555817,-3.039060592651367,-6.84503698348999,-0.5878621339797974,4.460658550262451,7.1304216384887695,-1.4032069444656372,4.253592014312744,-1.9511703252792358,13.723966598510742
Bi,-3.8544836044311523,4.873660564422607,2.0369718074798584,1.7049540281295776,-2.202000617980957,7.842761993408203,0.5521749258041382,-12.110142707824707,-0.2102326899766922,2.2864632606506348,4.711071014404297,0.06294848769903183,0.10706548392772675,3.345411777496338,0.6294426321983337,0.6264715194702148,-7.956173896789551,1.5801982879638672,-2.1839206218719482,14.730230331420898
Ac,-0.294066846370697,0.3207492530345917,0.6582106947898865,-0.3084762394428253,-0.24243725836277008,0.29544204473495483,-1.13454008102417,-0.5116342902183533,-0.3079102635383606,0.9437394142150879,-0.29145970940589905,-0.19529485702514648,0.03337074816226959,-0.13529779016971588,-0.3209162652492523,1.7882466316223145,0.41159588098526,-1.9751882553100586,-0.8867857456207275,5.798431873321533
Th,0.540235161781311,-2.4102540016174316,0.781550407409668,0.6575416922569275,-0.9012267589569092,0.4445745646953583,-1.9630331993103027,1.2123767137527466,-2.466087579727173,1.1777311563491821,-1.5121222734451294,0.9285283088684082,-0.41692277789115906,0.7163779735565186,-1.1461455821990967,-0.8825337886810303,-1.3853464126586914,-4.549437999725342,-1.572550892829895,9.742749214172363
Pa,0.07817675918340683,-0.5405309200286865,-0.02324989251792431,0.13366778194904327,-0.5828837752342224,-0.31871384382247925,-0.2694079279899597,0.42887556552886963,-1.894384503364563,0.7441653609275818,-0.001173735479824245,1.0024775266647339,-0.28634902834892273,1.042606234550476,-0.6687787175178528,0.02872384339570999,-0.8898186087608337,-0.3101632595062256,-0.6889999508857727,4.500675678253174
U,0.8472224473953247,-3.1735808849334717,-0.3120674788951874,1.0499954223632812,-0.5816067457199097,0.08608999103307724,-1.77052640914917,1.1220619678497314,-4.612147331237793,0.8935981392860413,-1.4882832765579224,1.4985817670822144,-1.63221275806427,2.3320932388305664,-2.5029969215393066,-3.330890655517578,-1.8814396858215332,-5.226068019866943,-2.039824962615967,10.040510177612305
Np,0.193722665309906,-0.664130687713623,-0.3601488471031189,-0.08100762963294983,-0.26750198006629944,0.2793266177177429,-1.014981985092163,0.37720614671707153,-1.1258904933929443,0.6341226696968079,-0.37877357006073,0.6810978055000305,-0.1854310780763626,0.7663537263870239,-0.5909448266029358,-0.3498760461807251,-0.5655617117881775,-2.130429267883301,-1.0651054382324219,5.621563911437988
Pu,-0.0969860628247261,-0.6066415905952454,-0.21913892030715942,-0.0573573037981987,-0.2570241093635559,0.26457712054252625,-1.0744593143463135,0.23836703598499298,-1.0495858192443848,0.7697116732597351,-0.4398220479488373,0.49626463651657104,-0.1181139424443245,0.7410981059074402,-0.6904030442237854,-0.383295476436615,-0.632182776927948,-2.9615917205810547,-1.228076457977295,6.9994096755981445
